digraph Tree {
node [shape=box, style="filled, rounded", color="black", fontname=helvetica] ;
edge [fontname=helvetica] ;
0 [label="petal width (cm) <= 0.7\ngini = 0.66\nsamples = 96\nvalue = [55, 50, 45]\nclass = setosa", fillcolor="#fef9f5"] ;
1 [label="gini = 0.0\nsamples = 35\nvalue = [55, 0, 0]\nclass = setosa", fillcolor="#e58139"] ;
0 -> 1 [labeldistance=2.5, labelangle=45, headlabel="True"] ;
2 [label="petal length (cm) <= 4.95\ngini = 0.5\nsamples = 61\nvalue = [0, 50, 45]\nclass = versicolor", fillcolor="#ebfcf2"] ;
0 -> 2 [labeldistance=2.5, labelangle=-45, headlabel="False"] ;
3 [label="petal width (cm) <= 1.65\ngini = 0.08\nsamples = 31\nvalue = [0, 47, 2]\nclass = versicolor", fillcolor="#41e686"] ;
2 -> 3 ;
4 [label="gini = 0.0\nsamples = 29\nvalue = [0, 47, 0]\nclass = versicolor", fillcolor="#39e581"] ;
3 -> 4 ;
5 [label="gini = 0.0\nsamples = 2\nvalue = [0, 0, 2]\nclass = virginica", fillcolor="#8139e5"] ;
3 -> 5 ;
6 [label="petal width (cm) <= 1.75\ngini = 0.12\nsamples = 30\nvalue = [0, 3, 43]\nclass = virginica", fillcolor="#8a47e7"] ;
2 -> 6 ;
7 [label="petal length (cm) <= 5.35\ngini = 0.49\nsamples = 5\nvalue = [0, 3, 4]\nclass = virginica", fillcolor="#e0cef8"] ;
6 -> 7 ;
8 [label="sepal length (cm) <= 6.5\ngini = 0.38\nsamples = 3\nvalue = [0, 3, 1]\nclass = versicolor", fillcolor="#7beeab"] ;
7 -> 8 ;
9 [label="petal width (cm) <= 1.55\ngini = 0.5\nsamples = 2\nvalue = [0, 1, 1]\nclass = versicolor", fillcolor="#ffffff"] ;
8 -> 9 ;
10 [label="gini = 0.0\nsamples = 1\nvalue = [0, 0, 1]\nclass = virginica", fillcolor="#8139e5"] ;
9 -> 10 ;
11 [label="gini = 0.0\nsamples = 1\nvalue = [0, 1, 0]\nclass = versicolor", fillcolor="#39e581"] ;
9 -> 11 ;
12 [label="gini = 0.0\nsamples = 1\nvalue = [0, 2, 0]\nclass = versicolor", fillcolor="#39e581"] ;
8 -> 12 ;
13 [label="gini = 0.0\nsamples = 2\nvalue = [0, 0, 3]\nclass = virginica", fillcolor="#8139e5"] ;
7 -> 13 ;
14 [label="gini = 0.0\nsamples = 25\nvalue = [0, 0, 39]\nclass = virginica", fillcolor="#8139e5"] ;
6 -> 14 ;
}